digraph Tree {
node [shape=box, style="filled, rounded", color="black", fontname=helvetica] ;
edge [fontname=helvetica] ;
0 [label="relationship <= 0.5\ngini = 0.364\nsamples = 22793\nvalue = [17334, 5458, 1]", fillcolor="#eda977"] ;
1 [label="education-num <= 10.5\ngini = 0.494\nsamples = 9214\nvalue = [5092, 4122, 0]", fillcolor="#fae7d9"] ;
0 -> 1 [labeldistance=2.5, labelangle=45, headlabel="True"] ;
2 [label="capital-gain <= 78.0\ngini = 0.435\nsamples = 6132\nvalue = [4168, 1964, 0]", fillcolor="#f1bc96"] ;
1 -> 2 ;
3 [label="education-num <= 7.5\ngini = 0.409\nsamples = 5838\nvalue = [4164, 1674, 0]", fillcolor="#efb489"] ;
2 -> 3 ;
4 [label="capital-loss <= 40.0\ngini = 0.175\nsamples = 1021\nvalue = [922, 99, 0]", fillcolor="#e88f4e"] ;
3 -> 4 ;
5 [label="(...)", fillcolor="#C0C0C0"] ;
4 -> 5 ;
50 [label="(...)", fillcolor="#C0C0C0"] ;
4 -> 50 ;
57 [label="capital-loss <= 43.5\ngini = 0.44\nsamples = 4817\nvalue = [3242, 1575, 0]", fillcolor="#f2be99"] ;
3 -> 57 ;
58 [label="(...)", fillcolor="#C0C0C0"] ;
57 -> 58 ;
115 [label="(...)", fillcolor="#C0C0C0"] ;
57 -> 115 ;
140 [label="age <= 45.5\ngini = 0.027\nsamples = 294\nvalue = [4, 290, 0]", fillcolor="#3ce583"] ;
2 -> 140 ;
141 [label="gini = 0.0\nsamples = 265\nvalue = [0, 265, 0]", fillcolor="#39e581"] ;
140 -> 141 ;
142 [label="hours-per-week <= 45.5\ngini = 0.238\nsamples = 29\nvalue = [4, 25, 0]", fillcolor="#59e995"] ;
140 -> 142 ;
143 [label="(...)", fillcolor="#C0C0C0"] ;
142 -> 143 ;
150 [label="(...)", fillcolor="#C0C0C0"] ;
142 -> 150 ;
151 [label="capital-gain <= 78.0\ngini = 0.42\nsamples = 3082\nvalue = [924, 2158, 0]", fillcolor="#8ef0b7"] ;
1 -> 151 ;
152 [label="capital-loss <= 39.5\ngini = 0.455\nsamples = 2637\nvalue = [922, 1715, 0]", fillcolor="#a3f3c5"] ;
151 -> 152 ;
153 [label="hours-per-week <= 30.0\ngini = 0.474\nsamples = 2365\nvalue = [911, 1454, 0]", fillcolor="#b5f5d0"] ;
152 -> 153 ;
154 [label="(...)", fillcolor="#C0C0C0"] ;
153 -> 154 ;
187 [label="(...)", fillcolor="#C0C0C0"] ;
153 -> 187 ;
242 [label="capital-loss <= 51.5\ngini = 0.078\nsamples = 272\nvalue = [11, 261, 0]", fillcolor="#41e686"] ;
152 -> 242 ;
243 [label="(...)", fillcolor="#C0C0C0"] ;
242 -> 243 ;
250 [label="(...)", fillcolor="#C0C0C0"] ;
242 -> 250 ;
257 [label="age <= 67.5\ngini = 0.009\nsamples = 445\nvalue = [2, 443, 0]", fillcolor="#3ae582"] ;
151 -> 257 ;
258 [label="age <= 45.5\ngini = 0.005\nsamples = 442\nvalue = [1, 441, 0]", fillcolor="#39e581"] ;
257 -> 258 ;
259 [label="(...)", fillcolor="#C0C0C0"] ;
258 -> 259 ;
260 [label="(...)", fillcolor="#C0C0C0"] ;
258 -> 260 ;
265 [label="gini = 0.444\nsamples = 3\nvalue = [1, 2, 0]", fillcolor="#9cf2c0"] ;
257 -> 265 ;
266 [label="capital-gain <= 90.5\ngini = 0.178\nsamples = 13579\nvalue = [12242, 1336, 1]", fillcolor="#e88f4f"] ;
0 -> 266 [labeldistance=2.5, labelangle=-45, headlabel="False"] ;
267 [label="relationship <= 4.5\ngini = 0.146\nsamples = 13289\nvalue = [12234, 1055, 0]", fillcolor="#e78c4a"] ;
266 -> 267 ;
268 [label="education-num <= 11.5\ngini = 0.096\nsamples = 12286\nvalue = [11666, 620, 0]", fillcolor="#e68844"] ;
267 -> 268 ;
269 [label="capital-loss <= 65.5\ngini = 0.049\nsamples = 9860\nvalue = [9610, 250, 0]", fillcolor="#e6843e"] ;
268 -> 269 ;
270 [label="(...)", fillcolor="#C0C0C0"] ;
269 -> 270 ;
321 [label="(...)", fillcolor="#C0C0C0"] ;
269 -> 321 ;
336 [label="age <= 15.5\ngini = 0.259\nsamples = 2426\nvalue = [2056, 370, 0]", fillcolor="#ea985d"] ;
268 -> 336 ;
337 [label="(...)", fillcolor="#C0C0C0"] ;
336 -> 337 ;
384 [label="(...)", fillcolor="#C0C0C0"] ;
336 -> 384 ;
425 [label="education-num <= 11.5\ngini = 0.491\nsamples = 1003\nvalue = [568, 435, 0]", fillcolor="#f9e1d1"] ;
267 -> 425 ;
426 [label="occupation <= 3.5\ngini = 0.449\nsamples = 730\nvalue = [482, 248, 0]", fillcolor="#f2c29f"] ;
425 -> 426 ;
427 [label="(...)", fillcolor="#C0C0C0"] ;
426 -> 427 ;
468 [label="(...)", fillcolor="#C0C0C0"] ;
426 -> 468 ;
507 [label="age <= 8.5\ngini = 0.432\nsamples = 273\nvalue = [86, 187, 0]", fillcolor="#94f1bb"] ;
425 -> 507 ;
508 [label="(...)", fillcolor="#C0C0C0"] ;
507 -> 508 ;
515 [label="(...)", fillcolor="#C0C0C0"] ;
507 -> 515 ;
542 [label="age <= 3.0\ngini = 0.06\nsamples = 290\nvalue = [8, 281, 1]", fillcolor="#3fe685"] ;
266 -> 542 ;
543 [label="gini = 0.444\nsamples = 3\nvalue = [2, 1, 0]", fillcolor="#f2c09c"] ;
542 -> 543 ;
544 [label="hours-per-week <= 72.0\ngini = 0.048\nsamples = 287\nvalue = [6, 280, 1]", fillcolor="#3ee684"] ;
542 -> 544 ;
545 [label="education-num <= 4.5\ngini = 0.041\nsamples = 285\nvalue = [6, 279, 0]", fillcolor="#3de684"] ;
544 -> 545 ;
546 [label="(...)", fillcolor="#C0C0C0"] ;
545 -> 546 ;
547 [label="(...)", fillcolor="#C0C0C0"] ;
545 -> 547 ;
562 [label="gini = 0.5\nsamples = 2\nvalue = [0, 1, 1]", fillcolor="#ffffff"] ;
544 -> 562 ;
}