digraph Tree {
node [shape=box, style="filled, rounded", color="black", fontname=helvetica] ;
edge [fontname=helvetica] ;
0 [label="relationship <= 0.5\ngini = 0.365\nsamples = 22792\nvalue = [17325, 5467]", fillcolor="#eda977"] ;
1 [label="education-num <= 11.5\ngini = 0.494\nsamples = 9208\nvalue = [5091, 4117]", fillcolor="#fae7d9"] ;
0 -> 1 [labeldistance=2.5, labelangle=45, headlabel="True"] ;
2 [label="capital-gain <= 78.0\ngini = 0.441\nsamples = 6424\nvalue = [4312, 2112]", fillcolor="#f2bf9a"] ;
1 -> 2 ;
3 [label="education-num <= 7.5\ngini = 0.416\nsamples = 6106\nvalue = [4307, 1799]", fillcolor="#f0b68c"] ;
2 -> 3 ;
4 [label="capital-loss <= 40.0\ngini = 0.174\nsamples = 1037\nvalue = [937, 100]", fillcolor="#e88e4e"] ;
3 -> 4 ;
5 [label="(...)", fillcolor="#C0C0C0"] ;
4 -> 5 ;
46 [label="(...)", fillcolor="#C0C0C0"] ;
4 -> 46 ;
51 [label="capital-loss <= 39.5\ngini = 0.446\nsamples = 5069\nvalue = [3370, 1699]", fillcolor="#f2c19d"] ;
3 -> 51 ;
52 [label="(...)", fillcolor="#C0C0C0"] ;
51 -> 52 ;
109 [label="(...)", fillcolor="#C0C0C0"] ;
51 -> 109 ;
130 [label="hours-per-week <= 7.0\ngini = 0.031\nsamples = 318\nvalue = [5, 313]", fillcolor="#3c9fe5"] ;
2 -> 130 ;
131 [label="gini = 0.0\nsamples = 1\nvalue = [1, 0]", fillcolor="#e58139"] ;
130 -> 131 ;
132 [label="age <= 69.0\ngini = 0.025\nsamples = 317\nvalue = [4, 313]", fillcolor="#3c9ee5"] ;
130 -> 132 ;
133 [label="(...)", fillcolor="#C0C0C0"] ;
132 -> 133 ;
144 [label="(...)", fillcolor="#C0C0C0"] ;
132 -> 144 ;
145 [label="capital-gain <= 78.0\ngini = 0.403\nsamples = 2784\nvalue = [779, 2005]", fillcolor="#86c3ef"] ;
1 -> 145 ;
146 [label="hours-per-week <= 30.0\ngini = 0.441\nsamples = 2367\nvalue = [776, 1591]", fillcolor="#9acdf2"] ;
145 -> 146 ;
147 [label="capital-loss <= 64.0\ngini = 0.412\nsamples = 169\nvalue = [120, 49]", fillcolor="#f0b48a"] ;
146 -> 147 ;
148 [label="(...)", fillcolor="#C0C0C0"] ;
147 -> 148 ;
183 [label="(...)", fillcolor="#C0C0C0"] ;
147 -> 183 ;
184 [label="capital-loss <= 40.5\ngini = 0.419\nsamples = 2198\nvalue = [656, 1542]", fillcolor="#8dc7f0"] ;
146 -> 184 ;
185 [label="(...)", fillcolor="#C0C0C0"] ;
184 -> 185 ;
222 [label="(...)", fillcolor="#C0C0C0"] ;
184 -> 222 ;
235 [label="age <= 67.5\ngini = 0.014\nsamples = 417\nvalue = [3, 414]", fillcolor="#3a9ee5"] ;
145 -> 235 ;
236 [label="hours-per-week <= 21.5\ngini = 0.01\nsamples = 414\nvalue = [2, 412]", fillcolor="#3a9de5"] ;
235 -> 236 ;
237 [label="(...)", fillcolor="#C0C0C0"] ;
236 -> 237 ;
240 [label="(...)", fillcolor="#C0C0C0"] ;
236 -> 240 ;
247 [label="gini = 0.444\nsamples = 3\nvalue = [1, 2]", fillcolor="#9ccef2"] ;
235 -> 247 ;
248 [label="capital-gain <= 90.5\ngini = 0.179\nsamples = 13584\nvalue = [12234, 1350]", fillcolor="#e88f4f"] ;
0 -> 248 [labeldistance=2.5, labelangle=-45, headlabel="False"] ;
249 [label="relationship <= 4.5\ngini = 0.148\nsamples = 13296\nvalue = [12224, 1072]", fillcolor="#e78c4a"] ;
248 -> 249 ;
250 [label="education-num <= 11.5\ngini = 0.097\nsamples = 12285\nvalue = [11656, 629]", fillcolor="#e68844"] ;
249 -> 250 ;
251 [label="capital-loss <= 65.5\ngini = 0.051\nsamples = 9851\nvalue = [9595, 256]", fillcolor="#e6843e"] ;
250 -> 251 ;
252 [label="(...)", fillcolor="#C0C0C0"] ;
251 -> 252 ;
315 [label="(...)", fillcolor="#C0C0C0"] ;
251 -> 315 ;
332 [label="age <= 14.5\ngini = 0.26\nsamples = 2434\nvalue = [2061, 373]", fillcolor="#ea985d"] ;
250 -> 332 ;
333 [label="(...)", fillcolor="#C0C0C0"] ;
332 -> 333 ;
370 [label="(...)", fillcolor="#C0C0C0"] ;
332 -> 370 ;
411 [label="education-num <= 11.5\ngini = 0.492\nsamples = 1011\nvalue = [568, 443]", fillcolor="#f9e3d3"] ;
249 -> 411 ;
412 [label="occupation <= 3.5\ngini = 0.452\nsamples = 741\nvalue = [485, 256]", fillcolor="#f3c4a2"] ;
411 -> 412 ;
413 [label="(...)", fillcolor="#C0C0C0"] ;
412 -> 413 ;
448 [label="(...)", fillcolor="#C0C0C0"] ;
412 -> 448 ;
473 [label="age <= 8.5\ngini = 0.426\nsamples = 270\nvalue = [83, 187]", fillcolor="#91c8f1"] ;
411 -> 473 ;
474 [label="(...)", fillcolor="#C0C0C0"] ;
473 -> 474 ;
479 [label="(...)", fillcolor="#C0C0C0"] ;
473 -> 479 ;
504 [label="age <= 3.0\ngini = 0.067\nsamples = 288\nvalue = [10, 278]", fillcolor="#40a1e6"] ;
248 -> 504 ;
505 [label="gini = 0.0\nsamples = 2\nvalue = [2, 0]", fillcolor="#e58139"] ;
504 -> 505 ;
506 [label="education-num <= 2.0\ngini = 0.054\nsamples = 286\nvalue = [8, 278]", fillcolor="#3fa0e6"] ;
504 -> 506 ;
507 [label="gini = 0.0\nsamples = 1\nvalue = [1, 0]", fillcolor="#e58139"] ;
506 -> 507 ;
508 [label="capital-gain <= 93.5\ngini = 0.048\nsamples = 285\nvalue = [7, 278]", fillcolor="#3e9fe6"] ;
506 -> 508 ;
509 [label="(...)", fillcolor="#C0C0C0"] ;
508 -> 509 ;
512 [label="(...)", fillcolor="#C0C0C0"] ;
508 -> 512 ;
}