digraph Tree {
node [shape=box, style="filled", color="black"] ;
0 [label="relationship <= 0.5\ngini = 0.365\nsamples = 22792\nvalue = [17325, 5467]", fillcolor="#eda977"] ;
1 [label="education-num <= 11.5\ngini = 0.494\nsamples = 9208\nvalue = [5091, 4117]", fillcolor="#fae7d9"] ;
0 -> 1 [labeldistance=2.5, labelangle=45, headlabel="True"] ;
2 [label="capital-gain <= 78.0\ngini = 0.441\nsamples = 6424\nvalue = [4312, 2112]", fillcolor="#f2bf9a"] ;
1 -> 2 ;
3 [label="education-num <= 7.5\ngini = 0.416\nsamples = 6106\nvalue = [4307, 1799]", fillcolor="#f0b68c"] ;
2 -> 3 ;
4 [label="capital-loss <= 40.0\ngini = 0.174\nsamples = 1037\nvalue = [937, 100]", fillcolor="#e88e4e"] ;
3 -> 4 ;
5 [label="(...)", fillcolor="#C0C0C0"] ;
4 -> 5 ;
352 [label="(...)", fillcolor="#C0C0C0"] ;
4 -> 352 ;
359 [label="capital-loss <= 39.5\ngini = 0.446\nsamples = 5069\nvalue = [3370, 1699]", fillcolor="#f2c19d"] ;
3 -> 359 ;
360 [label="(...)", fillcolor="#C0C0C0"] ;
359 -> 360 ;
3873 [label="(...)", fillcolor="#C0C0C0"] ;
359 -> 3873 ;
3930 [label="hours-per-week <= 7.0\ngini = 0.031\nsamples = 318\nvalue = [5, 313]", fillcolor="#3c9fe5"] ;
2 -> 3930 ;
3931 [label="gini = 0.0\nsamples = 1\nvalue = [1, 0]", fillcolor="#e58139"] ;
3930 -> 3931 ;
3932 [label="age <= 69.0\ngini = 0.025\nsamples = 317\nvalue = [4, 313]", fillcolor="#3c9ee5"] ;
3930 -> 3932 ;
3933 [label="(...)", fillcolor="#C0C0C0"] ;
3932 -> 3933 ;
3942 [label="(...)", fillcolor="#C0C0C0"] ;
3932 -> 3942 ;
3945 [label="capital-gain <= 78.0\ngini = 0.403\nsamples = 2784\nvalue = [779, 2005]", fillcolor="#86c3ef"] ;
1 -> 3945 ;
3946 [label="hours-per-week <= 30.0\ngini = 0.441\nsamples = 2367\nvalue = [776, 1591]", fillcolor="#9acdf2"] ;
3945 -> 3946 ;
3947 [label="capital-loss <= 64.0\ngini = 0.412\nsamples = 169\nvalue = [120, 49]", fillcolor="#f0b48a"] ;
3946 -> 3947 ;
3948 [label="(...)", fillcolor="#C0C0C0"] ;
3947 -> 3948 ;
4049 [label="(...)", fillcolor="#C0C0C0"] ;
3947 -> 4049 ;
4050 [label="capital-loss <= 40.5\ngini = 0.419\nsamples = 2198\nvalue = [656, 1542]", fillcolor="#8dc7f0"] ;
3946 -> 4050 ;
4051 [label="(...)", fillcolor="#C0C0C0"] ;
4050 -> 4051 ;
5524 [label="(...)", fillcolor="#C0C0C0"] ;
4050 -> 5524 ;
5535 [label="age <= 67.5\ngini = 0.014\nsamples = 417\nvalue = [3, 414]", fillcolor="#3a9ee5"] ;
3945 -> 5535 ;
5536 [label="hours-per-week <= 21.5\ngini = 0.01\nsamples = 414\nvalue = [2, 412]", fillcolor="#3a9de5"] ;
5535 -> 5536 ;
5537 [label="(...)", fillcolor="#C0C0C0"] ;
5536 -> 5537 ;
5542 [label="(...)", fillcolor="#C0C0C0"] ;
5536 -> 5542 ;
5549 [label="capital-gain <= 106.0\ngini = 0.444\nsamples = 3\nvalue = [1, 2]", fillcolor="#9ccef2"] ;
5535 -> 5549 ;
5550 [label="(...)", fillcolor="#C0C0C0"] ;
5549 -> 5550 ;
5551 [label="(...)", fillcolor="#C0C0C0"] ;
5549 -> 5551 ;
5552 [label="capital-gain <= 90.5\ngini = 0.179\nsamples = 13584\nvalue = [12234, 1350]", fillcolor="#e88f4f"] ;
0 -> 5552 [labeldistance=2.5, labelangle=-45, headlabel="False"] ;
5553 [label="relationship <= 4.5\ngini = 0.148\nsamples = 13296\nvalue = [12224, 1072]", fillcolor="#e78c4a"] ;
5552 -> 5553 ;
5554 [label="education-num <= 11.5\ngini = 0.097\nsamples = 12285\nvalue = [11656, 629]", fillcolor="#e68844"] ;
5553 -> 5554 ;
5555 [label="capital-loss <= 65.5\ngini = 0.051\nsamples = 9851\nvalue = [9595, 256]", fillcolor="#e6843e"] ;
5554 -> 5555 ;
5556 [label="(...)", fillcolor="#C0C0C0"] ;
5555 -> 5556 ;
6637 [label="(...)", fillcolor="#C0C0C0"] ;
5555 -> 6637 ;
6654 [label="age <= 14.5\ngini = 0.26\nsamples = 2434\nvalue = [2061, 373]", fillcolor="#ea985d"] ;
5554 -> 6654 ;
6655 [label="(...)", fillcolor="#C0C0C0"] ;
6654 -> 6655 ;
6868 [label="(...)", fillcolor="#C0C0C0"] ;
6654 -> 6868 ;
7649 [label="education-num <= 11.5\ngini = 0.492\nsamples = 1011\nvalue = [568, 443]", fillcolor="#f9e3d3"] ;
5553 -> 7649 ;
7650 [label="capital-loss <= 41.5\ngini = 0.452\nsamples = 741\nvalue = [485, 256]", fillcolor="#f3c4a2"] ;
7649 -> 7650 ;
7651 [label="(...)", fillcolor="#C0C0C0"] ;
7650 -> 7651 ;
8162 [label="(...)", fillcolor="#C0C0C0"] ;
7650 -> 8162 ;
8167 [label="age <= 8.5\ngini = 0.426\nsamples = 270\nvalue = [83, 187]", fillcolor="#91c8f1"] ;
7649 -> 8167 ;
8168 [label="(...)", fillcolor="#C0C0C0"] ;
8167 -> 8168 ;
8177 [label="(...)", fillcolor="#C0C0C0"] ;
8167 -> 8177 ;
8354 [label="age <= 3.0\ngini = 0.067\nsamples = 288\nvalue = [10, 278]", fillcolor="#40a1e6"] ;
5552 -> 8354 ;
8355 [label="gini = 0.0\nsamples = 2\nvalue = [2, 0]", fillcolor="#e58139"] ;
8354 -> 8355 ;
8356 [label="education-num <= 2.0\ngini = 0.054\nsamples = 286\nvalue = [8, 278]", fillcolor="#3fa0e6"] ;
8354 -> 8356 ;
8357 [label="gini = 0.0\nsamples = 1\nvalue = [1, 0]", fillcolor="#e58139"] ;
8356 -> 8357 ;
8358 [label="capital-gain <= 93.5\ngini = 0.048\nsamples = 285\nvalue = [7, 278]", fillcolor="#3e9fe6"] ;
8356 -> 8358 ;
8359 [label="(...)", fillcolor="#C0C0C0"] ;
8358 -> 8359 ;
8362 [label="(...)", fillcolor="#C0C0C0"] ;
8358 -> 8362 ;
}